<?xml version="1.0"?>
<opencv_storage>
<myhaar type_id="opencv-haar-classifier">
  <size>
    24 24</size>
  <stages>
    <_>
      <trees>
        <_>
          <_>
            <feature>
              <rects>
                <_>
                  2 7 19 15 -1.</_>
                <_>
                  2 12 19 5 3.</_></rects>
              <tilted>0</tilted></feature>
            <threshold>0.1264376938343048</threshold>
            <left_val>-1.</left_val>
            <right_val>0.8099545240402222</right_val></_></_></trees>
      <stage_threshold>0.8099545240402222</stage_threshold>
      <parent>-1</parent>
      <next>-1</next></_>
    <_>
      <trees>
        <_>
          <_>
            <feature>
              <rects>
                <_>
                  8 1 4 7 -1.</_>
                <_>
                  8 1 2 7 2.</_></rects>
              <tilted>1</tilted></feature>
            <threshold>-0.0340686403214931</threshold>
            <left_val>0.9251338243484497</left_val>
            <right_val>-0.8122069239616394</right_val></_></_>
        <_>
          <_>
            <feature>
              <rects>
                <_>
                  16 7 3 5 -1.</_>
                <_>
                  17 8 1 5 3.</_></rects>
              <tilted>1</tilted></feature>
            <threshold>-2.8708570171147585e-003</threshold>
            <left_val>0.5235195159912109</left_val>
            <right_val>-0.4156030118465424</right_val></_></_></trees>
      <stage_threshold>-0.2886874079704285</stage_threshold>
      <parent>0</parent>
      <next>-1</next></_>
    <_>
      <trees>
        <_>
          <_>
            <feature>
              <rects>
                <_>
                  1 3 18 9 -1.</_>
                <_>
                  7 6 6 3 9.</_></rects>
              <tilted>0</tilted></feature>
            <threshold>0.1806990951299667</threshold>
            <left_val>-0.8048778772354126</left_val>
            <right_val>0.8461536169052124</right_val></_></_>
        <_>
          <_>
            <feature>
              <rects>
                <_>
                  15 0 2 14 -1.</_>
                <_>
                  15 0 1 14 2.</_></rects>
              <tilted>1</tilted></feature>
            <threshold>-8.0325566232204437e-003</threshold>
            <left_val>0.4438591897487640</left_val>
            <right_val>-0.6366932988166809</right_val></_></_></trees>
      <stage_threshold>-0.3610188066959381</stage_threshold>
      <parent>1</parent>
      <next>-1</next></_>
    <_>
      <trees>
        <_>
          <_>
            <feature>
              <rects>
                <_>
                  1 6 21 3 -1.</_>
                <_>
                  8 7 7 1 9.</_></rects>
              <tilted>0</tilted></feature>
            <threshold>0.0916323289275169</threshold>
            <left_val>-0.8048778772354126</left_val>
            <right_val>0.8461536169052124</right_val></_></_>
        <_>
          <_>
            <feature>
              <rects>
                <_>
                  7 7 17 15 -1.</_>
                <_>
                  7 12 17 5 3.</_></rects>
              <tilted>0</tilted></feature>
            <threshold>0.1486334055662155</threshold>
            <left_val>0.3816271126270294</left_val>
            <right_val>-0.7727398872375488</right_val></_></_></trees>
      <stage_threshold>-0.4232507944107056</stage_threshold>
      <parent>2</parent>
      <next>-1</next></_>
    <_>
      <trees>
        <_>
          <_>
            <feature>
              <rects>
                <_>
                  1 7 6 3 -1.</_>
                <_>
                  4 7 3 3 2.</_></rects>
              <tilted>0</tilted></feature>
            <threshold>0.0159441996365786</threshold>
            <left_val>-0.7989947795867920</left_val>
            <right_val>0.7910444736480713</right_val></_></_>
        <_>
          <_>
            <feature>
              <rects>
                <_>
                  9 7 14 15 -1.</_>
                <_>
                  9 12 14 5 3.</_></rects>
              <tilted>0</tilted></feature>
            <threshold>0.1094207018613815</threshold>
            <left_val>-0.3897804915904999</left_val>
            <right_val>0.3400552868843079</right_val></_></_></trees>
      <stage_threshold>-0.4589394927024841</stage_threshold>
      <parent>3</parent>
      <next>-1</next></_>
    <_>
      <trees>
        <_>
          <_>
            <feature>
              <rects>
                <_>
                  9 7 5 4 -1.</_>
                <_>
                  8 8 5 2 2.</_></rects>
              <tilted>1</tilted></feature>
            <threshold>-3.1410010997205973e-003</threshold>
            <left_val>0.5444017052650452</left_val>
            <right_val>-1.</right_val></_></_></trees>
      <stage_threshold>0.5444017052650452</stage_threshold>
      <parent>4</parent>
      <next>-1</next></_>
    <_>
      <trees>
        <_>
          <_>
            <feature>
              <rects>
                <_>
                  10 9 8 1 -1.</_>
                <_>
                  10 9 4 1 2.</_></rects>
              <tilted>1</tilted></feature>
            <threshold>4.8440140672028065e-003</threshold>
            <left_val>-0.7959182858467102</left_val>
            <right_val>0.7647054195404053</right_val></_></_>
        <_>
          <_>
            <feature>
              <rects>
                <_>
                  21 13 1 10 -1.</_>
                <_>
                  21 18 1 5 2.</_></rects>
              <tilted>0</tilted></feature>
            <threshold>2.1637200843542814e-003</threshold>
            <left_val>0.0938494428992271</left_val>
            <right_val>-1.0000029802322388</right_val></_></_>
        <_>
          <_>
            <feature>
              <rects>
                <_>
                  2 13 1 10 -1.</_>
                <_>
                  2 18 1 5 2.</_></rects>
              <tilted>0</tilted></feature>
            <threshold>1.9597238861024380e-003</threshold>
            <left_val>-0.7304738759994507</left_val>
            <right_val>0.8028352260589600</right_val></_></_></trees>
      <stage_threshold>0.1007661968469620</stage_threshold>
      <parent>5</parent>
      <next>-1</next></_>
    <_>
      <trees>
        <_>
          <_>
            <feature>
              <rects>
                <_>
                  2 21 20 1 -1.</_>
                <_>
                  7 21 10 1 2.</_></rects>
              <tilted>0</tilted></feature>
            <threshold>7.7414340339601040e-003</threshold>
            <left_val>-0.7916666269302368</left_val>
            <right_val>0.7307690978050232</right_val></_></_>
        <_>
          <_>
            <feature>
              <rects>
                <_>
                  8 15 10 2 -1.</_>
                <_>
                  8 16 10 1 2.</_></rects>
              <tilted>0</tilted></feature>
            <threshold>5.0085671246051788e-003</threshold>
            <left_val>-0.5265849232673645</left_val>
            <right_val>0.7723339796066284</right_val></_></_></trees>
      <stage_threshold>-0.0193325895816088</stage_threshold>
      <parent>6</parent>
      <next>-1</next></_>
    <_>
      <trees>
        <_>
          <_>
            <feature>
              <rects>
                <_>
                  8 3 4 5 -1.</_>
                <_>
                  9 4 2 5 2.</_></rects>
              <tilted>1</tilted></feature>
            <threshold>9.0242242440581322e-003</threshold>
            <left_val>-0.7837836742401123</left_val>
            <right_val>0.6744185090065002</right_val></_></_>
        <_>
          <_>
            <feature>
              <rects>
                <_>
                  13 14 7 3 -1.</_>
                <_>
                  12 15 7 1 3.</_></rects>
              <tilted>1</tilted></feature>
            <threshold>-9.6641958225518465e-004</threshold>
            <left_val>-0.7135611772537231</left_val>
            <right_val>0.2025303989648819</right_val></_></_>
        <_>
          <_>
            <feature>
              <rects>
                <_>
                  11 14 3 7 -1.</_>
                <_>
                  12 15 1 7 3.</_></rects>
              <tilted>1</tilted></feature>
            <threshold>1.0773800313472748e-003</threshold>
            <left_val>-1.</left_val>
            <right_val>0.4379386007785797</right_val></_></_></trees>
      <stage_threshold>-0.1433147042989731</stage_threshold>
      <parent>7</parent>
      <next>-1</next></_></stages></myhaar>
</opencv_storage>
